svm_type c_svc
kernel_type polynomial
degree 2
gamma 1
coef0 1
nr_class 2
total_sv 87
rho 18.8818
label 1 -1
nr_sv 39 48
SV
0.0001766242826465827 1:6.73703 2:63.1912 3:10.3564 4:8.34574 5:7 6:66 7:75.8621 8:7 9:8.04598 10:3 11:3.44828 12:3 13:3.44828 18:6 19:6.89655 20:6 21:6.89655 22:159 23:92 24:0.578616 25:87 26:6.88549 27:10 28:15.7 29:5 30:0.5 31:2 32:132 33:147 34:0.897959 35:109 36:137 37:0.79562 38:64 39:127 40:0.503937 41:25 42:117 43:0.213675 44:0.010989 
2.233719107865374e-05 1:6.15664 2:61.8067 3:12.075 4:9.93833 5:7 6:74 7:77.0833 8:3 9:3.125 10:4 11:4.16667 12:4 13:4.16667 18:12 19:12.5 20:12 21:12.5 22:193 23:102 24:0.528497 25:96 26:8.57645 27:9 28:21.3333 29:7 30:0.777778 31:1 32:168 33:183 34:0.918033 35:141 36:174 37:0.810345 38:90 39:165 40:0.545455 41:28 42:156 43:0.179487 44:0.019802 
6.156045210804821e-06 1:5.86054 2:88.4824 3:6.67895 4:4.21513 5:5 6:49 7:77.7778 8:4 9:6.34921 10:3 11:4.7619 12:2 13:3.1746 18:4 19:6.34921 20:4 21:6.34921 22:146 23:64 24:0.438356 25:63 26:5.47873 27:11 28:13.2727 29:6 30:0.545455 31:2 32:123 33:135 34:0.911111 35:99 36:124 37:0.798387 38:54 39:113 40:0.477876 41:29 42:102 43:0.284314 44:0.0153846 
1.955168502047778e-05 1:7.52497 2:67.7313 3:7.7416 4:6.56558 5:9 6:43 7:65.1515 8:7 9:10.6061 10:9 11:13.6364 12:2 13:3.0303 18:5 19:7.57576 20:5 21:7.57576 22:136 23:74 24:0.544118 25:66 26:4.64504 27:12 28:11.0833 29:6 30:0.5 31:1 32:106 33:121 34:0.876033 35:80 36:109 37:0.733945 38:48 39:97 40:0.494845 41:15 42:85 43:0.176471 44:0.0547945 
5.634003244029351e-06 1:6.75687 2:57.5589 3:11.6146 4:9.1607 5:7 6:70 7:72.1649 8:5 9:5.15464 10:5 11:5.15464 12:7 13:7.2165 14:2 15:2.06186 18:6 19:6.18557 20:8 21:8.24742 22:175 23:103 24:0.588571 25:97 26:4.15207 27:11 28:15.8182 29:5 30:0.454545 31:3 32:149 33:163 34:0.91411 35:109 36:152 37:0.717105 38:63 39:141 40:0.446809 41:33 42:130 43:0.253846 44:0.038835 
1.695612839561377e-05 1:5.8785 2:68.8494 3:10.7795 4:7.96231 5:5 6:58 7:77.3333 8:5 9:6.66667 10:2 11:2.66667 12:4 13:5.33333 18:5 19:6.66667 20:5 21:6.66667 22:157 23:80 24:0.509554 25:75 26:6.87992 27:9 28:17.3333 29:7 30:0.777778 31:2 32:132 33:147 34:0.897959 35:109 36:138 37:0.789855 38:72 39:129 40:0.55814 41:37 42:120 43:0.308333 44:0.0253165 
2.959709433565191e-05 1:7.47644 2:73.2702 3:8.26944 4:5.41519 5:9 6:70 7:77.7778 8:6 9:6.66667 10:3 11:3.33333 12:5 13:5.55556 18:4 19:4.44444 20:4 21:4.44444 22:157 23:96 24:0.611465 25:90 26:3.19179 27:16 28:9.75 29:13 30:0.8125 31:4 32:130 33:140 34:0.928571 35:102 36:124 37:0.822581 38:60 39:108 40:0.555556 41:21 42:92 43:0.228261 44:0.0421053 
2.816828434604509e-05 1:6.1878 2:67.355 3:8.92064 4:7.05873 5:7 6:66 7:69.4737 8:9 9:9.47368 10:4 11:4.21053 12:5 13:5.26316 16:2 17:2.10526 18:8 19:8.42105 20:10 21:10.5263 22:181 23:100 24:0.552486 25:95 26:4.80858 27:14 28:12.8571 29:7 30:0.5 31:1 32:148 33:166 34:0.891566 35:117 36:152 37:0.769737 38:67 39:138 40:0.485507 41:23 42:124 43:0.185484 44:0.00980392 
7.704662885461119e-05 1:7.01998 2:74.1326 3:9.16969 4:6.7604 5:9 6:75 7:76.5306 8:6 9:6.12245 10:5 11:5.10204 12:4 13:4.08163 14:1 15:1.02041 18:7 19:7.14286 20:8 21:8.16327 22:203 23:108 24:0.53202 25:98 26:5.19786 27:13 28:15.4615 29:5 30:0.384615 32:175 33:188 34:0.930851 35:140 36:175 37:0.8 38:83 39:162 40:0.512346 41:39 42:149 43:0.261745 
1.757123374110066e-05 1:5.24921 2:81.1878 3:8.48547 4:5.02932 5:5 6:56 7:78.8732 8:9 9:12.6761 10:3 11:4.22535 16:1 17:1.40845 18:3 19:4.22535 20:4 21:5.6338 22:137 23:74 24:0.540146 25:71 26:5.71065 27:11 28:12.4545 29:8 30:0.727273 31:1 32:117 33:126 34:0.928571 35:99 36:115 37:0.86087 38:68 39:104 40:0.653846 41:21 42:93 43:0.225806 44:0.0135135 
8.543192957839866e-05 1:6.18087 2:85.631 3:6.82105 4:4.46228 5:7 6:49 7:85.9649 8:4 9:7.01754 18:3 19:5.26316 20:3 21:5.26316 22:116 23:60 24:0.517241 25:57 26:5.12076 27:9 28:12.6667 29:6 30:0.666667 31:1 32:102 33:105 34:0.971429 35:86 36:96 37:0.895833 38:50 39:87 40:0.574713 41:17 42:78 43:0.217949 44:0.0169492 
6.567568613061071e-05 1:7.0001 2:66.659 3:8.64228 4:7.0316 5:9 6:75 7:75 8:7 9:7 10:4 11:4 12:3 13:3 14:1 15:1 18:11 19:11 20:12 21:12 22:174 23:111 24:0.637931 25:100 26:6.32923 27:13 28:13.3077 29:8 30:0.615385 31:2 32:143 33:160 34:0.89375 35:114 36:147 37:0.77551 38:53 39:134 40:0.395522 41:18 42:121 43:0.14876 44:0.00900901 
6.848678559995417e-05 1:5.95064 2:67.1648 3:10.2424 4:6.94007 5:5 6:52 7:75.3623 8:4 9:5.7971 10:5 11:7.24638 12:2 13:2.89855 18:7 19:10.1449 20:7 21:10.1449 22:136 23:73 24:0.536765 25:69 26:2.5259 27:11 28:12.2727 29:8 30:0.727273 31:2 32:110 33:124 34:0.887097 35:82 36:113 37:0.725664 38:44 39:102 40:0.431373 41:18 42:91 43:0.197802 44:0.0273973 
4.991361460982056e-05 1:6.80207 2:60.8831 3:11.3538 4:7.99692 5:7 6:56 7:63.6364 8:13 9:14.7727 10:3 11:3.40909 12:6 13:6.81818 18:7 19:7.95455 20:7 21:7.95455 22:130 23:94 24:0.723077 25:88 26:4.44972 27:10 28:13 29:8 30:0.8 31:3 32:109 33:120 34:0.908333 35:83 36:110 37:0.754545 38:49 39:100 40:0.49 41:13 42:90 43:0.144444 44:0.0319149 
1.266398339885688e-05 1:7.3729 2:62.7639 3:13.5978 4:9.55639 5:9 6:70 7:70 8:13 9:13 10:6 11:6 12:4 13:4 14:1 15:1 18:6 19:6 20:7 21:7 22:187 23:103 24:0.550802 25:100 26:8.89444 27:9 28:20.6667 29:6 30:0.666667 32:169 33:177 34:0.954802 35:143 36:168 37:0.85119 38:93 39:159 40:0.584906 41:39 42:150 43:0.26 44:0.0196078 
3.809947238342352e-05 1:6.94509 2:82.5648 3:7.5388 4:4.27131 5:7 6:71 7:77.1739 8:9 9:9.78261 10:2 11:2.17391 12:2 13:2.17391 18:8 19:8.69565 20:8 21:8.69565 22:180 23:94 24:0.522222 25:92 26:3.71847 27:17 28:10.2353 29:8 30:0.470588 32:155 33:157 34:0.987261 35:119 36:140 37:0.85 38:70 39:123 40:0.569106 41:25 42:106 43:0.235849 44:0.0106383 
2.006659026072662e-05 1:6.02223 2:81.1501 3:7.05304 4:4.87508 5:7 6:70 7:72.9167 8:13 9:13.5417 10:2 11:2.08333 12:2 13:2.08333 18:8 19:8.33333 20:8 21:8.33333 22:195 23:102 24:0.523077 25:96 26:2.47171 27:16 28:11.875 29:13 30:0.8125 31:1 32:165 33:174 34:0.948276 35:140 36:158 37:0.886076 38:82 39:142 40:0.577465 41:34 42:126 43:0.269841 44:0.019802 
1.840058736087055e-06 1:6.91603 2:75.4261 3:6.43085 4:5.38008 5:7 6:66 7:68.75 8:14 9:14.5833 10:8 11:8.33333 12:2 13:2.08333 18:6 19:6.25 20:6 21:6.25 22:203 23:101 24:0.497537 25:96 26:4.11941 27:19 28:10.6316 29:15 30:0.789474 31:1 32:175 33:184 34:0.951087 35:135 36:166 37:0.813253 38:69 39:148 40:0.466216 41:25 42:130 43:0.192308 44:0.05 
5.606660781305298e-06 1:5.98592 2:74.805 3:8.96667 4:5.80667 5:5 6:49 7:70 8:9 9:12.8571 10:2 11:2.85714 12:3 13:4.28571 14:1 15:1.42857 16:2 17:2.85714 18:4 19:5.71429 20:7 21:10 22:145 23:77 24:0.531034 25:70 26:2.97325 27:13 28:11.0769 29:4 30:0.307692 32:125 33:131 34:0.954198 35:97 36:118 37:0.822034 38:40 39:105 40:0.380952 41:4 42:92 43:0.0434783 44:0.0526316 
2.400220430183334e-05 1:6.15544 2:88.5941 3:7.53421 4:4.40782 5:7 6:57 7:79.1667 8:2 9:2.77778 12:1 13:1.38889 18:7 19:9.72222 20:7 21:9.72222 22:129 23:74 24:0.573643 25:72 26:5.78205 27:9 28:14.1111 29:3 30:0.333333 31:7 32:98 33:118 34:0.830508 35:72 36:109 37:0.66055 38:35 39:100 40:0.35 41:17 42:91 43:0.186813 
6.494296740554599e-06 1:6.83852 2:73.8529 3:9.48371 4:6.7096 5:7 6:72 7:80 8:9 9:10 10:2 11:2.22222 12:3 13:3.33333 14:1 15:1.11111 18:3 19:3.33333 20:4 21:4.44444 22:151 23:96 24:0.635762 25:90 26:5.12738 27:10 28:15.1 29:9 30:0.9 32:135 33:141 34:0.957447 35:119 36:131 37:0.908397 38:79 39:121 40:0.652893 41:33 42:111 43:0.297297 44:0.0104167 
6.063709766354956e-05 1:7.74278 2:47.415 3:13.7778 4:11.6144 5:9 6:73 7:64.6018 8:17 9:15.0442 10:7 11:6.19469 12:7 13:6.19469 14:1 15:0.884956 18:6 19:5.30973 20:7 21:6.19469 22:182 23:121 24:0.664835 25:113 26:11.5662 27:9 28:20 29:3 30:0.333333 31:3 32:163 33:171 34:0.953216 35:128 36:162 37:0.790123 38:65 39:153 40:0.424837 41:23 42:144 43:0.159722 44:0.0569106 
3.660517548799524e-05 1:6.6096 2:66.2939 3:9.39382 4:7.29546 5:7 6:63 7:71.5909 8:17 9:19.3182 10:2 11:2.27273 12:1 13:1.13636 14:2 15:2.27273 16:1 17:1.13636 18:6 19:6.81818 20:9 21:10.2273 22:185 23:101 24:0.545946 25:88 26:5.51852 27:14 28:13.2143 29:10 30:0.714286 31:1 32:154 33:171 34:0.900585 35:118 36:157 37:0.751592 38:69 39:143 40:0.482517 41:32 42:129 43:0.248062 44:0.0588235 
2.598091171096097e-06 1:6.49109 2:62.4754 3:10.9589 4:8.99212 5:7 6:61 7:65.5914 8:14 9:15.0538 10:3 11:3.22581 12:5 13:5.37634 18:7 19:7.52688 20:7 21:7.52688 22:182 23:105 24:0.576923 25:93 26:6.46529 27:10 28:18 29:8 30:0.8 31:5 32:154 33:170 34:0.905882 35:122 36:160 37:0.7625 38:73 39:150 40:0.486667 41:23 42:140 43:0.164286 44:0.00934579 
5.485386154411497e-06 1:6.70293 2:64.701 3:11.2941 4:8.76499 5:7 6:84 7:70.5882 8:10 9:8.40336 10:4 11:3.36134 12:11 13:9.2437 14:1 15:0.840336 18:7 19:5.88235 20:8 21:6.72269 22:311 23:126 24:0.405145 25:119 26:7.3607 27:17 28:18.2353 29:17 30:1 31:2 32:285 33:293 34:0.972696 35:255 36:276 37:0.923913 38:198 39:259 40:0.764479 41:109 42:242 43:0.450413 44:0.0629921 
1.376768427202891e-05 1:8.01954 2:44.4868 3:13.6791 4:11.2394 5:11 6:70 7:56 8:18 9:14.4 10:13 11:10.4 12:7 13:5.6 14:2 15:1.6 16:3 17:2.4 18:18 19:14.4 20:23 21:18.4 22:220 23:137 24:0.622727 25:125 26:7.16253 27:13 28:16.9231 29:4 30:0.307692 31:2 32:183 33:207 34:0.884058 35:140 36:194 37:0.721649 38:79 39:181 40:0.436464 41:29 42:168 43:0.172619 44:0.0729927 
2.21554741049563e-06 1:9.03735 2:50.1404 3:12.2089 4:9.35867 5:13 6:78 7:67.2414 8:20 9:17.2414 10:4 11:3.44828 12:6 13:5.17241 16:2 17:1.72414 18:6 19:5.17241 20:8 21:6.89655 22:254 23:125 24:0.492126 25:116 26:6.60663 27:20 28:12.45 29:16 30:0.8 32:204 33:229 34:0.89083 35:139 36:209 37:0.665072 38:75 39:189 40:0.396825 41:26 42:170 43:0.152941 44:0.0403226 
3.868952412081508e-06 1:6.31802 2:72.354 3:7.84048 4:5.34735 5:7 6:108 7:69.6774 8:20 9:12.9032 10:9 11:5.80645 12:7 13:4.51613 14:2 15:1.29032 18:16 19:10.3226 20:18 21:11.6129 22:371 23:173 24:0.466307 25:155 26:4.93916 27:34 28:10.6765 29:24 30:0.705882 32:290 33:324 34:0.895062 35:231 36:292 37:0.791096 38:134 39:260 40:0.515385 41:53 42:229 43:0.231441 44:0.0337079 
2.712068259658054e-05 1:7.85672 2:49.798 3:13.0711 4:10.2387 5:9 6:76 7:62.2951 8:19 9:15.5738 10:11 11:9.01639 12:4 13:3.27869 14:2 15:1.63934 18:10 19:8.19672 20:12 21:9.83607 22:237 23:135 24:0.56962 25:122 26:5.9127 27:15 28:15.8 29:6 30:0.4 31:5 32:204 33:222 34:0.918919 35:167 36:207 37:0.806763 38:103 39:192 40:0.536458 41:45 42:177 43:0.254237 44:0.0740741 
2.323593707066521e-05 1:7.84474 2:54.7955 3:12.0584 4:9.54162 5:9 6:89 7:60.5442 8:24 9:16.3265 10:8 11:5.44218 12:9 13:6.12245 14:2 15:1.36054 16:4 17:2.72109 18:11 19:7.48299 20:17 21:11.5646 22:239 23:158 24:0.661088 25:147 26:7.60234 27:15 28:15.9333 29:7 30:0.466667 31:1 32:203 33:224 34:0.90625 35:143 36:210 37:0.680952 38:65 39:196 40:0.331633 41:16 42:182 43:0.0879121 44:0.0740741 
1.60393227958261e-05 1:8.78378 2:48.4354 3:13.6704 4:10.8925 5:11 6:59 7:56.7308 8:14 9:13.4615 10:9 11:8.65385 12:13 13:12.5 16:2 17:1.92308 18:5 19:4.80769 20:7 21:6.73077 22:212 23:111 24:0.523585 25:104 26:8.78762 27:12 28:17.6667 29:8 30:0.666667 31:3 32:189 33:200 34:0.945 35:150 36:188 37:0.797872 38:78 39:176 40:0.443182 41:27 42:164 43:0.164634 44:0.117117 
2.189711126653575e-06 1:6.69954 2:53.7016 3:12.1669 4:10.2959 5:7 6:68 7:66.6667 8:10 9:9.80392 10:10 11:9.80392 12:4 13:3.92157 14:1 15:0.980392 16:2 17:1.96078 18:8 19:7.84314 20:11 21:10.7843 22:165 23:113 24:0.684848 25:102 26:3.01846 27:9 28:18.3333 29:5 30:0.555556 31:3 32:147 33:156 34:0.942308 35:116 36:147 37:0.789116 38:67 39:138 40:0.485507 41:30 42:129 43:0.232558 44:0.0350877 
2.643647263675194e-06 1:8.02345 2:50.5702 3:13.779 4:10.0316 5:11 6:66 7:59.4595 8:19 9:17.1171 10:6 11:5.40541 12:7 13:6.30631 14:2 15:1.8018 16:1 17:0.900901 18:9 19:8.10811 20:12 21:10.8108 22:233 23:117 24:0.502146 25:111 26:5.43814 27:15 28:15.4 29:14 30:0.933333 31:3 32:204 33:216 34:0.944444 35:172 36:201 37:0.855721 38:121 39:186 40:0.650538 41:68 42:171 43:0.397661 44:0.0689655 
9.137364448198666e-06 1:7.58483 2:55.3492 3:14.4813 4:10.8014 5:9 6:81 7:71.6814 8:13 9:11.5044 10:4 11:3.53982 12:5 13:4.42478 14:1 15:0.884956 18:9 19:7.9646 20:10 21:8.84956 22:235 23:123 24:0.523404 25:113 26:11.6605 27:11 28:21.1818 29:6 30:0.545455 31:1 32:214 33:222 34:0.963964 35:166 36:211 37:0.78673 38:83 39:200 40:0.415 41:19 42:189 43:0.100529 44:0.0322581 
5.546774407811484e-06 1:9.1935 2:30.6493 3:17.6386 4:13.2542 5:13 6:62 7:43.9716 8:27 9:19.1489 10:9 11:6.38298 12:16 13:11.3475 14:3 15:2.12766 16:7 17:4.96454 18:14 19:9.92908 20:24 21:17.0213 22:277 23:151 24:0.545126 25:141 26:6.72216 27:16 28:17.25 29:10 30:0.625 31:6 32:243 33:260 34:0.934615 35:173 36:244 37:0.709016 38:70 39:228 40:0.307018 41:14 42:212 43:0.0660377 44:0.14 
8.931683768989106e-07 1:8.53653 2:46.5413 3:14.2252 4:11.8812 5:11 6:70 7:55.5556 8:17 9:13.4921 10:12 11:9.52381 12:9 13:7.14286 14:1 15:0.793651 16:1 17:0.793651 18:12 19:9.52381 20:14 21:11.1111 22:249 23:136 24:0.546185 25:126 26:4.24918 27:12 28:20.6667 29:7 30:0.583333 31:4 32:220 33:236 34:0.932203 35:178 36:224 37:0.794643 38:80 39:212 40:0.377358 41:18 42:200 43:0.09 44:0.0735294 
4.772798422555297e-05 1:7.0604 2:63.5388 3:11.033 4:8.41 5:9 6:81 7:69.8276 8:12 9:10.3448 10:4 11:3.44828 12:5 13:4.31034 14:1 15:0.862069 16:1 17:0.862069 18:4 19:3.44828 20:6 21:5.17241 22:210 23:124 24:0.590476 25:116 26:6.71217 27:13 28:16.1538 29:6 30:0.461538 31:10 32:184 33:197 34:0.93401 35:122 36:184 37:0.663043 38:59 39:171 40:0.345029 41:23 42:158 43:0.14557 44:0.047619 
4.279339210315852e-06 1:7.5588 2:65.4768 3:10.8033 4:8.52526 5:9 6:84 7:75 8:14 9:12.5 10:6 11:5.35714 12:3 13:2.67857 18:5 19:4.46429 20:5 21:4.46429 22:305 23:128 24:0.419672 25:112 26:8.16567 27:17 28:17.7059 29:8 30:0.470588 32:273 33:284 34:0.961268 35:226 36:267 37:0.846442 38:142 39:250 40:0.568 41:53 42:233 43:0.227468 44:0.00793651 
1.228447817065261e-05 1:8.25508 2:59.2447 3:11.5148 4:9.23689 5:11 6:87 7:61.2676 8:22 9:15.493 10:10 11:7.04225 12:9 13:6.33803 16:2 17:1.40845 18:13 19:9.15493 20:15 21:10.5634 22:245 23:156 24:0.636735 25:142 26:5.59929 27:14 28:17.0714 29:8 30:0.571429 31:2 32:209 33:225 34:0.928889 35:170 36:211 37:0.805687 38:93 39:197 40:0.472081 41:32 42:183 43:0.174863 44:0.0709677 
-6.980087096671429e-05 1:6.57879 2:72.8125 3:8.95556 4:6.45722 5:7 6:54 7:80.597 8:4 9:5.97015 10:1 11:1.49254 12:2 13:2.98507 18:5 19:7.46269 20:5 21:7.46269 22:137 23:72 24:0.525547 25:67 26:4.78017 27:10 28:13.5 29:8 30:0.8 31:1 32:114 33:125 34:0.912 35:100 36:115 37:0.869565 38:62 39:105 40:0.590476 41:26 42:95 43:0.273684 44:0.0138889 
-2.535239793156705e-06 1:5.9602 2:69.8577 3:6.76716 4:6.31604 5:5 6:57 7:78.0822 8:6 9:8.21918 10:3 11:4.10959 18:5 19:6.84932 20:5 21:6.84932 22:124 23:78 24:0.629032 25:73 26:6.86349 27:11 28:11.2727 29:6 30:0.545455 31:2 32:87 33:113 34:0.769912 35:64 36:103 37:0.621359 38:36 39:93 40:0.387097 41:12 42:83 43:0.144578 
-1.629500756145767e-05 1:6.63577 2:70.8618 3:7.83696 4:6.94668 5:7 6:54 7:85.7143 8:2 9:3.1746 10:1 11:1.5873 12:2 13:3.1746 18:6 19:9.52381 20:6 21:9.52381 22:116 23:71 24:0.612069 25:63 26:8.896 27:6 28:19.1667 29:2 30:0.333333 32:100 33:109 34:0.917431 35:77 36:103 37:0.747573 38:42 39:97 40:0.43299 41:6 42:92 43:0.0652174 44:0.0144928 
-2.056353992384745e-05 1:6.11 2:71.7751 3:7.76136 4:5.81006 5:7 6:64 7:69.5652 8:8 9:8.69565 10:6 11:6.52174 12:1 13:1.08696 14:1 15:1.08696 18:8 19:8.69565 20:9 21:9.78261 22:167 23:95 24:0.568862 25:92 26:5.25328 27:14 28:11.7857 29:7 30:0.5 31:5 32:137 33:151 34:0.907285 35:99 36:137 37:0.722628 38:51 39:123 40:0.414634 41:18 42:109 43:0.165138 44:0.0206186 
-1.237989416279246e-06 1:6.17718 2:61.9484 3:11.3137 4:8.12436 5:7 6:57 7:75 8:12 9:15.7895 10:2 11:2.63158 12:3 13:3.94737 18:1 19:1.31579 20:1 21:1.31579 22:127 23:81 24:0.637795 25:76 26:4.86357 27:9 28:14.1111 29:4 30:0.444444 31:2 32:114 33:118 34:0.966102 35:87 36:109 37:0.798165 38:38 39:100 40:0.38 41:12 42:91 43:0.131868 44:0.037037 
-3.54516030734704e-05 1:5.69784 2:75.505 3:10.4508 4:7.83841 5:5 6:68 7:85 8:4 9:5 10:1 11:1.25 18:5 19:6.25 20:5 21:6.25 22:145 23:85 24:0.586207 25:80 26:7.34569 27:7 28:20.5714 29:2 30:0.285714 31:3 32:123 33:137 34:0.89781 35:101 36:130 37:0.776923 38:61 39:123 40:0.495935 41:32 42:116 43:0.275862 
-5.364588349037139e-05 1:6.37797 2:65.0587 3:10.1837 4:8.20948 5:7 6:72 7:74.2268 8:12 9:12.3711 10:3 11:3.09278 12:5 13:5.15464 18:6 19:6.18557 20:6 21:6.18557 22:162 23:101 24:0.623457 25:97 26:4.73077 27:11 28:14.7273 29:8 30:0.727273 32:138 33:151 34:0.913907 35:117 36:140 37:0.835714 38:73 39:129 40:0.565891 41:26 42:118 43:0.220339 44:0.0196078 
-9.23686518103591e-06 1:7.15966 2:68.286 3:8.40909 4:7.15068 5:9 6:54 7:75 8:7 9:9.72222 10:2 11:2.77778 12:2 13:2.77778 18:6 19:8.33333 20:6 21:8.33333 22:112 23:77 24:0.6875 25:72 26:5.84701 27:8 28:13.75 29:5 30:0.625 31:1 32:91 33:102 34:0.892157 35:73 36:94 37:0.776596 38:34 39:86 40:0.395349 41:9 42:78 43:0.115385 
-1.408823691933832e-05 1:7.1263 2:66.8872 3:11.1506 4:8.4016 5:9 6:61 7:76.25 8:3 9:3.75 10:2 11:2.5 12:6 13:7.5 16:1 17:1.25 18:7 19:8.75 20:8 21:10 22:164 23:85 24:0.518293 25:80 26:8.02773 27:9 28:18 29:3 30:0.333333 32:147 33:153 34:0.960784 35:116 36:144 37:0.805556 38:57 39:135 40:0.422222 41:22 42:126 43:0.174603 44:0.0235294 
-6.770398190531047e-06 1:5.77066 2:72.0514 3:7.86643 4:6.51561 5:5 6:64 7:82.0513 8:7 9:8.97436 10:1 11:1.28205 12:2 13:2.5641 18:5 19:6.41026 20:5 21:6.41026 22:175 23:90 24:0.514286 25:78 26:4.28566 27:13 28:13.3077 29:4 30:0.307692 32:139 33:160 34:0.86875 35:112 36:147 37:0.761905 38:53 39:134 40:0.395522 41:11 42:121 43:0.0909091 
-3.583483465312534e-05 1:6.23661 2:69.6841 3:9.27174 4:6.66584 5:7 6:67 7:73.6264 8:8 9:8.79121 10:4 11:4.3956 12:5 13:5.49451 18:5 19:5.49451 20:5 21:5.49451 22:154 23:95 24:0.616883 25:91 26:5.09016 27:12 28:12.5833 29:7 30:0.583333 31:3 32:130 33:139 34:0.935252 35:96 36:127 37:0.755906 38:45 39:115 40:0.391304 41:18 42:103 43:0.174757 44:0.0210526 
-1.648736785060673e-05 1:5.38175 2:72.7839 3:8.8732 4:6.75933 5:5 6:53 7:72.6027 8:4 9:5.47945 10:3 11:4.10959 12:4 13:5.47945 18:6 19:8.21918 20:6 21:8.21918 22:147 23:80 24:0.544218 25:73 26:6.64906 27:10 28:14.7 29:5 30:0.5 31:4 32:123 33:137 34:0.89781 35:95 36:127 37:0.748031 38:64 39:117 40:0.547009 41:25 42:107 43:0.233645 44:0.0123457 
-1.830764258595707e-05 1:6.0626 2:78.6739 3:7.80375 4:5.97409 5:7 6:73 7:82.0225 8:6 9:6.74157 10:1 11:1.1236 12:1 13:1.1236 18:10 19:11.236 20:10 21:11.236 22:196 23:97 24:0.494898 25:89 26:4.05436 27:13 28:14.8462 29:8 30:0.615385 32:170 33:180 34:0.944444 35:147 36:167 37:0.88024 38:107 39:154 40:0.694805 41:56 42:141 43:0.397163 44:0.0103093 
-1.89348062388392e-05 1:7.10316 2:56.1349 3:11.6738 4:9.21816 5:9 6:54 7:75 8:5 9:6.94444 10:3 11:4.16667 12:3 13:4.16667 18:6 19:8.33333 20:6 21:8.33333 22:124 23:75 24:0.604839 25:72 26:5.06828 27:8 28:15.25 29:6 30:0.75 31:1 32:109 33:114 34:0.95614 35:82 36:106 37:0.773585 38:40 39:98 40:0.408163 41:9 42:90 43:0.1 44:0.027027 
-1.736568618109694e-05 1:6.09383 2:84.3977 3:6.54545 4:3.97182 5:7 6:52 7:78.7879 8:5 9:7.57576 10:6 11:9.09091 12:2 13:3.0303 18:1 19:1.51515 20:1 21:1.51515 22:114 23:69 24:0.605263 25:66 26:5.44393 27:11 28:10 29:6 30:0.545455 32:93 33:99 34:0.939394 35:72 36:89 37:0.808989 38:49 39:79 40:0.620253 41:13 42:70 43:0.185714 44:0.0142857 
-3.278730950232687e-05 1:5.89727 2:83.6627 3:6.4464 4:4.20586 5:5 6:66 7:76.7442 8:11 9:12.7907 10:1 11:1.16279 12:1 13:1.16279 18:7 19:8.13953 20:7 21:8.13953 22:182 23:89 24:0.489011 25:86 26:3.41481 27:17 28:10.5294 29:15 30:0.882353 31:1 32:152 33:162 34:0.938272 35:126 36:145 37:0.868966 38:76 39:128 40:0.59375 41:31 42:111 43:0.279279 44:0.0337079 
-8.323179897017838e-07 1:7.69793 2:67.1304 3:8.74203 4:7.70522 5:9 6:36 7:61.0169 8:7 9:11.8644 10:7 11:11.8644 12:2 13:3.38983 14:1 15:1.69492 18:4 19:6.77966 20:5 21:8.47458 22:93 23:61 24:0.655914 25:59 26:7.86695 27:6 28:15.3333 29:1 30:0.166667 31:2 32:76 33:86 34:0.883721 35:61 36:80 37:0.7625 38:31 39:74 40:0.418919 41:8 42:68 43:0.117647 44:0.0833333 
-3.897797040956002e-05 1:5.72573 2:81.1597 3:8.37079 4:4.69447 5:5 6:54 7:81.8182 8:1 9:1.51515 10:3 11:4.54545 18:6 19:9.09091 20:6 21:9.09091 22:122 23:71 24:0.581967 25:66 26:5.45151 27:11 28:11.0909 29:7 30:0.636364 31:3 32:98 33:111 34:0.882883 35:79 36:100 37:0.79 38:45 39:89 40:0.505618 41:17 42:78 43:0.217949 
-4.162812695181916e-05 1:5.65032 2:81.7808 3:6.58548 4:4.74052 5:5 6:64 7:82.0513 8:5 9:6.41026 10:4 11:5.12821 18:5 19:6.41026 20:5 21:6.41026 22:187 23:85 24:0.454545 25:78 26:5.78657 27:16 28:11.625 29:12 30:0.75 31:1 32:157 33:170 34:0.923529 35:132 36:154 37:0.857143 38:77 39:138 40:0.557971 41:33 42:122 43:0.270492 
-1.580167162712993e-06 1:6.15969 2:66.0633 3:9.36911 4:7.44 5:7 6:38 7:79.1667 8:7 9:14.5833 18:2 19:4.16667 20:2 21:4.16667 22:82 23:52 24:0.634146 25:48 26:7.90921 27:6 28:13.6667 29:3 30:0.5 31:2 32:69 33:76 34:0.907895 35:61 36:70 37:0.871429 38:33 39:64 40:0.515625 41:11 42:58 43:0.189655 44:0.0192308 
-2.655929606405842e-06 1:7.00868 2:76.7271 3:7.26471 4:4.89559 5:9 6:68 7:77.2727 8:12 9:13.6364 10:2 11:2.27273 12:4 13:4.54545 18:4 19:4.54545 20:4 21:4.54545 22:161 23:96 24:0.596273 25:88 26:3.51566 27:17 28:9.41177 29:12 30:0.705882 32:139 33:143 34:0.972028 35:102 36:126 37:0.809524 38:51 39:109 40:0.46789 41:17 42:92 43:0.184783 44:0.0104167 
-3.546027438038282e-05 1:6.19998 2:75.1909 3:8.70091 4:6.13929 5:7 6:60 7:81.0811 8:4 9:5.40541 10:1 11:1.35135 12:4 13:5.40541 18:3 19:4.05405 20:3 21:4.05405 22:125 23:77 24:0.616 25:74 26:5.73488 27:9 28:13.6667 29:3 30:0.333333 31:3 32:107 33:114 34:0.938596 35:86 36:105 37:0.819048 38:38 39:96 40:0.395833 41:6 42:87 43:0.0689655 44:0.025974 
-6.018886329947024e-05 1:7.42116 2:65.8675 3:9.8091 4:7.62656 5:9 6:73 7:73 8:9 9:9 10:4 11:4 12:5 13:5 18:9 19:9 20:9 21:9 22:192 23:106 24:0.552083 25:100 26:7.00127 27:13 28:14.4615 29:6 30:0.461538 31:2 32:153 33:175 34:0.874286 35:116 36:162 37:0.716049 38:68 39:149 40:0.456376 41:30 42:136 43:0.220588 44:0.0283019 
-2.653308004925123e-05 1:7.18122 2:72.2623 3:8.07143 4:5.35393 5:9 6:30 7:69.7674 8:7 9:16.2791 18:4 19:9.30233 20:4 21:9.30233 22:70 23:46 24:0.657143 25:43 26:1.71391 27:8 28:8.75 29:4 30:0.5 31:4 32:52 33:62 34:0.83871 35:29 36:54 37:0.537037 38:9 39:46 40:0.195652 41:2 42:38 43:0.0526316 44:0.0217391 
-8.580708891155538e-06 1:6.14345 2:69.8578 3:7.84683 4:6.57123 5:7 6:63 7:78.75 8:4 9:5 10:3 11:3.75 12:4 13:5 18:6 19:7.5 20:6 21:7.5 22:124 23:85 24:0.685484 25:80 26:4.755 27:10 28:12.3 29:5 30:0.5 31:1 32:100 33:113 34:0.884956 35:85 36:103 37:0.825243 38:55 39:93 40:0.591398 41:18 42:83 43:0.216867 44:0.0357143 
-2.806396359728485e-05 1:8.54136 2:53.0783 3:12.583 4:9.48684 5:11 6:66 7:55.9322 8:22 9:18.6441 10:9 11:7.62712 12:7 13:5.9322 14:1 15:0.847458 18:10 19:8.47458 20:11 21:9.32203 22:192 23:128 24:0.666667 25:118 26:7.09863 27:13 28:14.6154 29:8 30:0.615385 31:4 32:163 33:177 34:0.920904 35:123 36:164 37:0.75 38:61 39:151 40:0.403974 41:23 42:138 43:0.166667 44:0.0697674 
-0.0001082209508059742 1:7.25992 2:71.2221 3:9.46178 4:7.01347 5:9 6:69 7:71.875 8:10 9:10.4167 10:5 11:5.20833 12:4 13:4.16667 14:1 15:1.04167 18:8 19:8.33333 20:9 21:9.375 22:196 23:104 24:0.530612 25:96 26:6.2983 27:13 28:14.8462 29:7 30:0.538462 31:1 32:171 33:180 34:0.95 35:132 36:167 37:0.790419 38:79 39:154 40:0.512987 41:31 42:141 43:0.219858 44:0.0291262 
-4.208753387104596e-06 1:8.71673 2:55.0819 3:12.8659 4:10.6444 5:11 6:75 7:56.8182 8:24 9:18.1818 10:9 11:6.81818 12:16 13:12.1212 14:2 15:1.51515 16:1 17:0.757576 18:4 19:3.0303 20:7 21:5.30303 22:306 23:146 24:0.477124 25:132 26:8.36501 27:15 28:20.4 29:9 30:0.6 31:2 32:278 33:291 34:0.955326 35:239 36:276 37:0.865942 38:153 39:261 40:0.586207 41:61 42:246 43:0.247967 44:0.10274 
-2.165741173880629e-05 1:8.0054 2:35.054 3:16.6171 4:13.0224 5:11 6:72 7:59.0164 8:15 9:12.2951 10:10 11:8.19672 12:10 13:8.19672 14:2 15:1.63934 18:12 19:9.83607 20:14 21:11.4754 22:206 23:133 24:0.645631 25:122 26:10.558 27:11 28:18.7273 29:6 30:0.545455 31:5 32:177 33:195 34:0.907692 35:129 36:184 37:0.701087 38:66 39:173 40:0.381503 41:17 42:162 43:0.104938 44:0.0451128 
-6.871930397802224e-05 1:6.9367 2:62.765 3:10.2101 4:7.96376 5:7 6:80 7:70.7965 8:14 9:12.3894 10:4 11:3.53982 12:3 13:2.65487 14:1 15:0.884956 16:1 17:0.884956 18:9 19:7.9646 20:11 21:9.73451 22:183 23:123 24:0.672131 25:113 26:5.00769 27:13 28:14 29:7 30:0.538462 31:1 32:156 33:169 34:0.923077 35:123 36:156 37:0.788462 38:64 39:143 40:0.447552 41:20 42:130 43:0.153846 44:0.0327869 
-2.190334302393872e-05 1:7.82391 2:54.9794 3:12.6498 4:9.47692 5:9 6:87 7:66.4122 8:18 9:13.7405 10:7 11:5.34351 12:8 13:6.10687 16:1 17:0.763359 18:7 19:5.34351 20:8 21:6.10687 22:219 23:141 24:0.643836 25:131 26:10.9249 27:12 28:18.25 29:3 30:0.25 31:6 32:187 33:207 34:0.903382 35:134 36:195 37:0.68718 38:56 39:183 40:0.306011 41:22 42:171 43:0.128655 44:0.0642857 
-7.060855265786612e-06 1:7.07772 2:63.5857 3:11.0595 4:8.34869 5:9 6:94 7:71.7557 8:11 9:8.39695 10:4 11:3.05344 12:6 13:4.58015 14:3 15:2.29008 16:3 17:2.29008 18:11 19:8.39695 20:17 21:12.9771 22:240 23:143 24:0.595833 25:131 26:5.30995 27:15 28:15.9333 29:9 30:0.6 31:1 32:209 33:224 34:0.933036 35:163 36:209 37:0.779904 38:84 39:194 40:0.43299 41:37 42:179 43:0.206704 44:0.041958 
-7.211572393757436e-07 1:7.03409 2:64.1853 3:9.40348 4:7.77293 5:9 6:81 7:67.5 8:18 9:15 10:5 11:4.16667 12:5 13:4.16667 18:11 19:9.16667 20:11 21:9.16667 22:298 23:133 24:0.446309 25:120 26:6.87724 27:19 28:15.4211 29:12 30:0.631579 31:1 32:248 33:274 34:0.905109 35:198 36:255 37:0.776471 38:109 39:236 40:0.461864 41:37 42:217 43:0.170507 44:0.0149254 
-5.344852783983272e-06 1:6.27567 2:73.9452 3:9.36934 4:6.58315 5:7 6:84 7:75 8:12 9:10.7143 10:3 11:2.67857 12:1 13:0.892857 18:10 19:8.92857 20:10 21:8.92857 22:210 23:120 24:0.571429 25:112 26:6.38757 27:14 28:14.6429 29:10 30:0.714286 31:3 32:180 33:191 34:0.942408 35:138 36:177 37:0.779661 38:74 39:163 40:0.453988 41:28 42:149 43:0.187919 44:0.0252101 
-3.02224987807479e-05 1:7.95649 2:50.3758 3:12.557 4:10.0167 5:9 6:64 7:65.3061 8:11 9:11.2245 10:7 11:7.14286 12:6 13:6.12245 14:1 15:1.02041 16:1 17:1.02041 18:5 19:5.10204 20:7 21:7.14286 22:198 23:103 24:0.520202 25:98 26:4.15385 27:13 28:15.2308 29:6 30:0.461538 31:4 32:170 33:185 34:0.918919 35:137 36:172 37:0.796512 38:81 39:159 40:0.509434 41:37 42:146 43:0.253425 44:0.0679612 
-1.300468584617395e-05 1:6.71921 2:81.1786 3:6.66505 4:5.20433 5:7 6:62 7:75.6098 8:6 9:7.31707 10:3 11:3.65854 18:8 19:9.7561 20:8 21:9.7561 22:173 23:90 24:0.520231 25:82 26:4.16068 27:14 28:12.2143 29:9 30:0.642857 31:4 32:147 33:157 34:0.936306 35:108 36:143 37:0.755245 38:58 39:129 40:0.449612 41:26 42:115 43:0.226087 44:0.011236 
-9.061444896370844e-06 1:7.86136 2:53.5236 3:13.2765 4:11.7285 5:9 6:68 7:58.1197 8:22 9:18.8034 10:8 11:6.83761 12:10 13:8.54701 16:2 17:1.7094 18:3 19:2.5641 20:5 21:4.2735 22:215 23:127 24:0.590698 25:117 26:4.67724 27:9 28:23.8889 29:3 30:0.333333 31:4 32:195 33:206 34:0.946602 35:152 36:197 37:0.771574 38:71 39:188 40:0.37766 41:23 42:179 43:0.128492 44:0.0472441 
-3.863735957783759e-06 1:8.37897 2:48.4028 3:13.0684 4:10.0482 5:11 6:77 7:57.037 8:18 9:13.3333 10:11 11:8.14815 12:13 13:9.62963 14:1 15:0.740741 16:2 17:1.48148 18:15 19:11.1111 20:18 21:13.3333 22:229 23:145 24:0.633188 25:135 26:3.9956 27:16 28:14.3125 29:9 30:0.5625 31:1 32:196 33:213 34:0.920188 35:148 36:197 37:0.751269 38:68 39:181 40:0.375691 41:21 42:165 43:0.127273 44:0.110345 
-1.306078313767241e-05 1:7.68147 2:48.9283 3:12.8022 4:9.64781 5:9 6:67 7:61.4679 8:21 9:19.2661 10:4 11:3.66972 12:5 13:4.58716 16:3 17:2.75229 18:5 19:4.58716 20:8 21:7.33945 22:195 23:116 24:0.594872 25:109 26:6.59764 27:15 28:12.9333 29:6 30:0.4 31:5 32:162 33:179 34:0.905028 35:117 36:165 37:0.709091 38:56 39:151 40:0.370861 41:14 42:137 43:0.10219 44:0.0431034 
-1.652110660632308e-05 1:7.72003 2:45.6457 3:13.4965 4:11.0777 5:9 6:79 7:57.6642 8:16 9:11.6788 10:11 11:8.0292 12:9 13:6.56934 14:5 15:3.64964 16:4 17:2.91971 18:15 19:10.9489 20:24 21:17.5182 22:222 23:150 24:0.675676 25:137 26:6.21413 27:13 28:17 29:5 30:0.384615 31:3 32:188 33:208 34:0.903846 35:143 36:195 37:0.733333 38:77 39:182 40:0.423077 41:29 42:169 43:0.171598 44:0.0933333 
-1.676199207174946e-05 1:7.45773 2:49.4833 3:14.8205 4:11.74 5:9 6:67 7:67.6768 8:10 9:10.101 10:8 11:8.08081 12:2 13:2.0202 14:2 15:2.0202 16:1 17:1.0101 18:7 19:7.07071 20:10 21:10.101 22:197 23:106 24:0.538071 25:99 26:13.8323 27:9 28:21.6667 29:5 30:0.555556 31:5 32:171 33:186 34:0.919355 35:137 36:177 37:0.774011 38:85 39:168 40:0.505952 41:31 42:159 43:0.194969 44:0.0283019 
-1.673068480803656e-05 1:7.54214 2:64.5676 3:10.1848 4:7.89705 5:9 6:56 7:59.5745 8:14 9:14.8936 10:9 11:9.57447 12:5 13:5.31915 14:3 15:3.19149 18:7 19:7.44681 20:10 21:10.6383 22:176 23:98 24:0.556818 25:94 26:4.69633 27:12 28:14.6667 29:9 30:0.75 31:2 32:152 33:164 34:0.926829 35:128 36:152 37:0.842105 38:78 39:140 40:0.557143 41:26 42:128 43:0.203125 44:0.0714286 
-5.791128244321469e-07 1:8.11434 2:63.8727 3:11.4655 4:9.45694 5:11 6:64 7:68.8172 8:10 9:10.7527 10:5 11:5.37634 12:3 13:3.22581 16:3 17:3.22581 18:9 19:9.67742 20:12 21:12.9032 22:187 23:102 24:0.545455 25:93 26:4.59737 27:9 28:20.5556 29:6 30:0.666667 32:166 33:176 34:0.943182 35:137 36:167 37:0.820359 38:75 39:158 40:0.474684 41:35 42:149 43:0.234899 44:0.0594059 
-1.335084256697349e-05 1:6.755 2:66.1604 3:10.0639 4:7.56448 5:7 6:93 7:70.4545 8:11 9:8.33333 10:7 11:5.30303 12:6 13:4.54545 16:2 17:1.51515 18:12 19:9.09091 20:14 21:10.6061 22:259 23:146 24:0.563707 25:132 26:6.71763 27:18 28:14.3889 29:10 30:0.555556 31:7 32:217 33:241 34:0.900415 35:149 36:223 37:0.668161 38:68 39:205 40:0.331707 41:15 42:187 43:0.0802139 44:0.0337838 
-6.702021218129261e-06 1:8.11863 2:57.8209 3:10.8606 4:8.17561 5:11 6:87 7:66.9231 8:17 9:13.0769 10:8 11:6.15385 12:10 13:7.69231 18:6 19:4.61538 20:6 21:4.61538 22:267 23:142 24:0.531835 25:130 26:4.88039 27:22 28:12 29:14 30:0.636364 31:2 32:230 33:242 34:0.950413 35:174 36:220 37:0.790909 38:92 39:198 40:0.464646 41:35 42:176 43:0.198864 44:0.0496454 
-1.911413847229285e-05 1:7.24148 2:50.5629 3:14.5905 4:11.4238 5:9 6:79 7:64.7541 8:16 9:13.1148 10:5 11:4.09836 12:7 13:5.7377 14:1 15:0.819672 16:1 17:0.819672 18:13 19:10.6557 20:15 21:12.2951 22:256 23:141 24:0.550781 25:122 26:9.12871 27:12 28:21 29:4 30:0.333333 31:3 32:215 33:240 34:0.895833 35:168 36:228 37:0.736842 38:94 39:216 40:0.435185 41:40 42:204 43:0.196078 44:0.0413793 
-2.927968701017562e-05 1:7.21916 2:57.6776 3:12.8489 4:9.66358 5:9 6:75 7:70.0935 8:11 9:10.2804 10:6 11:5.60748 12:6 13:5.60748 14:1 15:0.934579 16:2 17:1.86916 18:2 19:1.86916 20:5 21:4.6729 22:197 23:112 24:0.568528 25:107 26:5.43481 27:11 28:17.9091 29:6 30:0.545455 31:4 32:178 33:186 34:0.956989 35:150 36:175 37:0.857143 38:96 39:164 40:0.585366 41:43 42:153 43:0.281046 44:0.0803571 
-1.42661573738817e-05 1:8.43032 2:43.0792 3:15.4888 4:12.9334 5:11 6:61 7:70.1149 8:13 9:14.9425 10:4 11:4.5977 12:3 13:3.44828 18:5 19:5.74713 20:5 21:5.74713 22:183 23:99 24:0.540984 25:87 26:9.87702 27:9 28:20.3333 29:5 30:0.555556 31:2 32:170 33:175 34:0.971429 35:146 36:167 37:0.874251 38:89 39:159 40:0.559748 41:37 42:151 43:0.245033 44:0.040404 
